%YAML:1.0
---
opencv_ml_nbayes:
   format: 3
   var_count: 7
   var_all: 7
   cls_labels: !!opencv-matrix
      rows: 3
      cols: 1
      dt: i
      data: [ 1, 2, 3 ]
   count:
      - !!opencv-matrix
         rows: 1
         cols: 7
         dt: i
         data: [ 12, 12, 12, 12, 12, 12, 12 ]
      - !!opencv-matrix
         rows: 1
         cols: 7
         dt: i
         data: [ 12, 12, 12, 12, 12, 12, 12 ]
      - !!opencv-matrix
         rows: 1
         cols: 7
         dt: i
         data: [ 12, 12, 12, 12, 12, 12, 12 ]
   sum:
      - !!opencv-matrix
         rows: 1
         cols: 7
         dt: d
         data: [ 7.9162799119949341e+00, 5.1696719169616699e+01,
             6.5475272655487061e+01, 6.4332168579101562e+01,
             -4.1427004814147949e+01, -5.9713735103607178e+01,
             4.0145602226257324e+01 ]
      - !!opencv-matrix
         rows: 1
         cols: 7
         dt: d
         data: [ 9.3124114871025085e+00, 4.5023853302001953e+01,
             6.6552071571350098e+01, 8.7936225891113281e+01,
             -2.8379777908325195e+01, -9.1925770759582520e+01,
             3.1658206939697266e+01 ]
      - !!opencv-matrix
         rows: 1
         cols: 7
         dt: d
         data: [ 8.5615417361259460e+00, 4.5583476305007935e+01,
             2.7990998506546021e+01, 6.3921154499053955e+01,
             -3.3433649063110352e+01, -2.5681015491485596e+01,
             -5.8461485862731934e+01 ]
   productsum:
      - !!opencv-matrix
         rows: 7
         cols: 7
         dt: d
         data: [ 5.2223750279762058e+00, 3.4126685231161460e+01,
             4.3205863150905060e+01, 4.2456555831855013e+01,
             -2.7271911912960547e+01, -3.9415545771754722e+01,
             2.6486391225098885e+01, 3.4126685231161460e+01,
             2.3084533715330997e+02, 2.8512768588877964e+02,
             2.8351698458034332e+02, -1.5402440766977998e+02,
             -2.5292091512132129e+02, 1.6556079426968563e+02,
             4.3205863150905060e+01, 2.8512768588877964e+02,
             3.6270545240304159e+02, 3.5256818204614160e+02,
             -2.2252165306194502e+02, -3.4206596658159719e+02,
             1.8738116475867173e+02, 4.2456555831855013e+01,
             2.8351698458034332e+02, 3.5256818204614160e+02,
             3.5420920889148056e+02, -1.8608308172433635e+02,
             -3.2777053247584422e+02, 1.7936745048336570e+02,
             -2.7271911912960547e+01, -1.5402440766977998e+02,
             -2.2252165306194502e+02, -1.8608308172433635e+02,
             1.4962338650826832e+03, -1.1561694947426304e+02,
             -5.4397076292882230e+02, -3.9415545771754722e+01,
             -2.5292091512132129e+02, -3.4206596658159719e+02,
             -3.2777053247584422e+02, -1.1561694947426304e+02,
             7.4011471247802797e+02, 1.0129905782230526e+02,
             2.6486391225098885e+01, 1.6556079426968563e+02,
             1.8738116475867173e+02, 1.7936745048336570e+02,
             -5.4397076292882230e+02, 1.0129905782230526e+02,
             1.5067259903280019e+03 ]
      - !!opencv-matrix
         rows: 7
         cols: 7
         dt: d
         data: [ 7.2267562209439582e+00, 3.4941384109810841e+01,
             5.1649754028127631e+01, 6.8245289048384564e+01,
             -2.1976256876510377e+01, -7.1331457373269416e+01,
             2.4599840380463718e+01, 3.4941384109810841e+01,
             1.6926236672436085e+02, 2.5031561800764393e+02,
             3.3071216119263158e+02, -9.2563882470981980e+01,
             -3.4408474330582590e+02, 1.2686355382237048e+02,
             5.1649754028127631e+01, 2.5031561800764393e+02,
             3.7307132156063608e+02, 4.9191955183403616e+02,
             -1.7238928065365189e+02, -4.9565680397623191e+02,
             2.2109409197587274e+02, 6.8245289048384564e+01,
             3.3071216119263158e+02, 4.9191955183403616e+02,
             6.4923980719756992e+02, -2.2197162685371632e+02,
             -6.5193739055183278e+02, 2.8321057920075873e+02,
             -2.1976256876510377e+01, -9.2563882470981980e+01,
             -1.7238928065365189e+02, -2.2197162685371632e+02,
             2.4155388577339399e+03, -1.1180376519972197e+02,
             -1.3254793440400590e+02, -7.1331457373269416e+01,
             -3.4408474330582590e+02, -4.9565680397623191e+02,
             -6.5193739055183278e+02, -1.1180376519972197e+02,
             1.0765577505804240e+03, 2.9500391901174225e+00,
             2.4599840380463718e+01, 1.2686355382237048e+02,
             2.2109409197587274e+02, 2.8321057920075873e+02,
             -1.3254793440400590e+02, 2.9500391901174225e+00,
             2.4307364469555887e+03 ]
      - !!opencv-matrix
         rows: 7
         cols: 7
         dt: d
         data: [ 6.1083745808828631e+00, 3.2530221278396525e+01,
             1.9970654456577179e+01, 4.5613380103930780e+01,
             -2.3725709208628189e+01, -1.8222130318559692e+01,
             -4.1724618094789491e+01, 3.2530221278396525e+01,
             1.7493324336080531e+02, 1.0635482356464883e+02,
             2.4458106713993720e+02, -9.9906277672509759e+01,
             -7.6290417627162924e+01, -2.3152520661934818e+02,
             1.9970654456577179e+01, 1.0635482356464883e+02,
             6.5291932491761429e+01, 1.4912922793728501e+02,
             -7.7422009787490424e+01, -5.9457506964080721e+01,
             -1.3645390601802205e+02, 4.5613380103930780e+01,
             2.4458106713993720e+02, 1.4912922793728501e+02,
             3.4225688370709281e+02, -1.5084355126110995e+02,
             -1.1540122422455283e+02, -3.2108961220671608e+02,
             -2.3725709208628189e+01, -9.9906277672509759e+01,
             -7.7422009787490424e+01, -1.5084355126110995e+02,
             1.0531614483925314e+03, 8.3467992099421235e+02,
             -2.3464866889649966e+02, -1.8222130318559692e+01,
             -7.6290417627162924e+01, -5.9457506964080721e+01,
             -1.1540122422455283e+02, 8.3467992099421235e+02,
             6.6168798482635043e+02, -1.9108428118433449e+02,
             -4.1724618094789491e+01, -2.3152520661934818e+02,
             -1.3645390601802205e+02, -3.2108961220671608e+02,
             -2.3464866889649966e+02, -1.9108428118433449e+02,
             1.0867540479255322e+03 ]
   avg:
      - !!opencv-matrix
         rows: 1
         cols: 7
         dt: d
         data: [ 6.5968999266624451e-01, 4.3080599308013916e+00,
             5.4562727212905884e+00, 5.3610140482584638e+00,
             -3.4522504011789956e+00, -4.9761445919672651e+00,
             3.3454668521881104e+00 ]
      - !!opencv-matrix
         rows: 1
         cols: 7
         dt: d
         data: [ 7.7603429059187568e-01, 3.7519877751668296e+00,
             5.5460059642791748e+00, 7.3280188242594404e+00,
             -2.3649814923604331e+00, -7.6604808966318769e+00,
             2.6381839116414390e+00 ]
      - !!opencv-matrix
         rows: 1
         cols: 7
         dt: d
         data: [ 7.1346181134382880e-01, 3.7986230254173279e+00,
             2.3325832088788352e+00, 5.3267628749211626e+00,
             -2.7861374219258628e+00, -2.1400846242904663e+00,
             -4.8717904885609942e+00 ]
   inv_eigen_values:
      - !!opencv-matrix
         rows: 7
         cols: 1
         dt: d
         data: [ 5.7795807174343882e-03, 1.1477498224615353e-02,
             3.5442403386140013e-02, 7.8093891958930117e-01,
             2.4609052538178040e+00, 1.1558917547601160e+01,
             9.2599147311429225e+05 ]
      - !!opencv-matrix
         rows: 7
         cols: 1
         dt: d
         data: [ 4.4245756707246946e-03, 4.7996710549305464e-03,
             3.7510994837550216e-02, 1.9075300847663641e+00,
             7.1371972523288150e+01, 2.6352713975535528e+02, 8388608. ]
      - !!opencv-matrix
         rows: 7
         cols: 1
         dt: d
         data: [ 6.0391452212273421e-03, 2.0047320287210915e-02,
             5.3601217909028227e+00, 5.7412335846514293e+02,
             6.9771762026735205e+03, 1.8492097603982175e+05, 8388608. ]
   cov_rotate_mats:
      - !!opencv-matrix
         rows: 7
         cols: 7
         dt: d
         data: [ 2.3154093866318847e-05, 1.0785650131906552e-02,
             1.5110960737127199e-02, 2.6885224516613286e-02,
             6.7273891044521672e-01, -2.8879167851898097e-01,
             -6.8040740558476021e-01, 4.4676968101729902e-05,
             1.2455092559203707e-02, -2.0443356765105541e-02,
             2.6721106095841155e-04, 7.0525955619413327e-01,
             -2.5929096077154677e-02, 7.0807026968317877e-01,
             2.8931066013925938e-05, -3.6350965327442010e-02,
             2.8549755171790314e-02, -2.4968087783773539e-02,
             -2.2084092511976680e-01, -9.5588279580133095e-01,
             1.8643357808636746e-01, -2.1177080500615988e-03,
             -6.9046964315995341e-01, -3.0366677639762524e-01,
             -6.5503285361659569e-01, 2.9076561486695723e-02,
             2.2801349078758266e-02, -2.4500792531149569e-02,
             1.0885866966498250e-03, 2.0009270298465068e-01,
             7.9166681749972856e-01, -5.7632035498004353e-01,
             1.7313108932571337e-02, 2.7738369331721517e-02,
             3.3260821899134749e-03, -9.4631351572721284e-04,
             -6.9398578551262324e-01, 5.2876059699328548e-01,
             4.8727859367808302e-01, 1.0743009097601253e-02,
             3.0427021635789472e-02, 1.7703709144568688e-02,
             9.9999671570120574e-01, -2.3365216941484634e-03,
             -1.0047680513192497e-03, -2.9858842504649086e-04,
             1.2198787847664565e-05, 8.2384604345505161e-05,
             -6.0027130376027214e-05 ]
      - !!opencv-matrix
         rows: 7
         cols: 7
         dt: d
         data: [ 5.0536147761561256e-06, 1.9042177377935703e-03,
             -1.7520104011615457e-02, -1.9308764266583549e-02,
             7.3249584610903284e-01, -1.9024412651617512e-01,
             -6.5312602096861627e-01, 2.4152982204226293e-05,
             6.6663034894451668e-03, 1.0454057018399016e-02,
             1.2548284244277386e-02, 6.6303577169750127e-01,
             -1.7817144605781959e-02, 7.4816771373562807e-01,
             -3.3675787616560092e-05, -7.0799823082282210e-03,
             -2.2670178432703098e-02, -4.6258692624547820e-02,
             -1.5420178150834898e-01, -9.8000704250805160e-01,
             1.1447303742465681e-01, -6.7023653978889582e-04,
             -1.3516120117083252e-01, -6.9100337077983354e-01,
             -7.0771222147095214e-01, 2.0019007234018150e-04,
             5.3117477750308208e-02, 2.3816950140121952e-02,
             2.6259539164772846e-03, 7.3997518006040774e-01,
             -5.4667419365101122e-01, 3.9169862055537019e-01,
             -6.9399789400071748e-03, -1.0051923908685966e-02,
             3.8656135172937414e-04, 1.6480951958276118e-03,
             6.5883249506775199e-01, 4.7194433116204682e-01,
             -5.8570056926105951e-01, -2.6472766428212750e-03,
             1.2385903379595819e-02, -3.9074960960405465e-07,
             9.9999496858147752e-01, -3.1199741241068773e-03,
             1.9366992827845420e-04, -5.3939283406744605e-04,
             -2.1877169812079512e-06, 9.9733144490446692e-06,
             4.0336977732447352e-06 ]
      - !!opencv-matrix
         rows: 7
         cols: 7
         dt: d
         data: [ 8.3576257201159053e-05, 1.9267805698684897e-02,
             3.7536006791957934e-04, 1.9423237373106427e-02,
             7.0024723477760931e-01, 5.5671190009810967e-01,
             -4.4606839398101100e-01, 1.0863268497756238e-04,
             1.2641737766011957e-02, 4.4271698951837789e-04,
             1.2436366498210189e-02, 3.4905447366322945e-01,
             2.7719469383235551e-01, 8.9499128017096197e-01,
             3.0943093428236934e-03, 7.0293796363637229e-01,
             7.9762473746747102e-03, 6.9450769082361730e-01,
             6.8101314273447025e-02, -1.3716006859369970e-01,
             -3.6630548326030228e-03, 7.2815320281167870e-03,
             7.2284356898668189e-02, 4.6371770559051236e-03,
             -2.7945564621567526e-01, 5.9943443756002601e-01,
             -7.4651407517396451e-01, 2.8294956528222072e-04,
             8.9401930970698061e-03, -6.9737452858695459e-01,
             1.7426693153577874e-01, 6.5167175603418803e-01,
             1.5127403066654802e-01, -1.8883836458825654e-01,
             1.9619240828851932e-04, -1.5034073603387590e-01,
             -1.1657805603495305e-01, -9.7321772443086785e-01,
             1.1920069762311788e-01, 3.1139574718270682e-02,
             -3.8417988405102049e-02, 2.4399372951149523e-04,
             9.8856214867409464e-01, -1.4158138491460826e-02,
             -1.4964236231750869e-01, 1.2116100724912706e-02,
             -1.3583797641307164e-03, 1.7156274097622881e-03,
             -1.5924200268894095e-05 ]
   c: !!opencv-matrix
      rows: 1
      cols: 3
      dt: d
      data: [ -3.8787111422529921e+00, -1.2387346033510530e+01,
          -3.5933146965619834e+01 ]
