%YAML:1.0
---
opencv_ml_svm:
   format: 3
   svmType: C_SVC
   kernel:
      type: RBF
      gamma: 1.5000000000000001e-04
   C: 3.1250000000000000e+02
   term_criteria: { epsilon:1.1920928955078125e-07, iterations:1000 }
   var_count: 7
   class_count: 3
   class_labels: !!opencv-matrix
      rows: 3
      cols: 1
      dt: i
      data: [ 1, 2, 3 ]
   sv_total: 16
   support_vectors:
      - [ 6.65671289e-01, 8.34113026e+00, 8.89250183e+00, 9.53676414e+00,
          -1.88746929e+01, 1.37256975e+01, -1.89330387e+01 ]
      - [ 6.65951431e-01, 8.72328854e+00, 6.93204832e+00, 8.74924183e+00,
          1.72156219e+01, 1.46465797e+01, -1.66024113e+01 ]
      - [ 6.65564001e-01, 4.68292427e+00, 8.32447338e+00, 9.82272816e+00,
          1.89684582e+01, 1.23252773e+01, -1.91707172e+01 ]
      - [ 6.64997160e-01, 4.73200321e+00, 6.81526613e+00, 8.30409622e+00,
          -1.61152325e+01, -1.22507038e+01, -1.59456511e+01 ]
      - [ 6.65521979e-01, 8.51575947e+00, 8.69998741e+00, 9.67666531e+00,
          1.93052044e+01, 1.40215626e+01, 1.88956566e+01 ]
      - [ 6.65560544e-01, 7.78213024e+00, 8.06959820e+00, 9.34854221e+00,
          -2.00439491e+01, -1.32656145e+01, 1.80576363e+01 ]
      - [ 6.65556192e-01, 9.89118195e+00, 9.68621445e+00, 9.86927319e+00,
          -1.98548355e+01, -1.48148689e+01, -1.97522373e+01 ]
      - [ 6.65603697e-01, 7.47996950e+00, 7.53580570e+00, 1.06594391e+01,
          -1.97587662e+01, -1.49641275e+01, 2.08104134e+01 ]
      - [ 7.78152585e-01, 1.17228327e+01, 1.11551323e+01, 1.21645145e+01,
          -2.38402996e+01, 1.93813457e+01, 2.43991070e+01 ]
      - [ 7.78149188e-01, 9.90863609e+00, 9.45460987e+00, 1.04002657e+01,
          2.03302097e+01, -1.53602762e+01, 2.12978382e+01 ]
      - [ 7.78154433e-01, 9.81592369e+00, 1.15846987e+01, 1.16546535e+01,
          -2.45618572e+01, 1.67051964e+01, -2.32749081e+01 ]
      - [ 7.78152049e-01, 1.07597122e+01, 1.05297279e+01, 1.16206894e+01,
          -2.48636971e+01, -1.72425461e+01, 2.26959095e+01 ]
      - [ 7.78151453e-01, 1.26225882e+01, 1.03467665e+01, 1.24895134e+01,
          2.41240349e+01, 1.96557331e+01, 2.40077000e+01 ]
      - [ 7.78153062e-01, 1.61370316e+01, 9.73096561e+00, 1.11103506e+01,
          2.15523281e+01, 1.92087097e+01, 2.20455761e+01 ]
      - [ 7.11171269e-01, 3.11121273e+00, 2.33367252e+00, 4.56072760e+00,
          8.00792885e+00, 6.11633682e+00, -1.06367683e+01 ]
      - [ 7.11205661e-01, 3.11265540e+00, 2.33382297e+00, 4.56181335e+00,
          8.00963211e+00, 6.11814117e+00, 2.15468369e+01 ]
   decision_functions:
      -
         sv_count: 9
         rho: 8.0849718311259053e+00
         alpha: [ 4.4010032738091212e+01, 2.7148831029551438e+01,
             1.2585685596539538e+00, 1.5873631982823630e+02,
             -8.1547049994335215e+00, -2.8376344357439955e+01,
             -4.4959995010683798e+01, -1.3298802522971641e+02,
             -1.6674682558259260e+01 ]
         index: [ 0, 4, 6, 7, 8, 9, 10, 11, 13 ]
      -
         sv_count: 7
         rho: -4.3527006499856116e+00
         alpha: [ 2.4832026622440203e+01, 7.3023852033428902e+00,
             1.6672870791030356e+01, 1.6815968011391913e+01,
             2.9447016397241033e+00, -5.6880950401503270e+01,
             -1.1687001866426197e+01 ]
         index: [ 1, 2, 3, 4, 5, 14, 15 ]
      -
         sv_count: 8
         rho: -2.6039039962668875e+00
         alpha: [ 6.1857144543588936e+00, 1.0962128069912884e+01,
             1.7461950675307698e+00, 4.1549750426561688e-01,
             8.1811107670503560e+00, 1.1930410582167326e+00,
             -2.8258864984979604e+00, -2.5857800422837297e+01 ]
         index: [ 8, 9, 10, 11, 12, 13, 14, 15 ]
