%YAML:1.0
---
opencv_ml_svm:
   format: 3
   svmType: C_SVC
   kernel:
      type: RBF
      gamma: 3.3750000000000002e-02
   C: 3.1250000000000000e+02
   term_criteria: { epsilon:1.1920928955078125e-07, iterations:1000 }
   var_count: 7
   class_count: 3
   class_labels: !!opencv-matrix
      rows: 3
      cols: 1
      dt: i
      data: [ 1, 2, 3 ]
   sv_total: 18
   support_vectors:
      - [ 3.07248926e+00, 8.34843731e+00, 1.26921043e+01, 1.12666407e+01,
          -2.36262035e+01, -1.68962231e+01, -2.32874241e+01 ]
      - [ 2.96243787e+00, 9.07045174e+00, 1.40305872e+01, 1.13696947e+01,
          2.42042084e+01, 1.60156345e+01, -2.42377892e+01 ]
      - [ 3.05446625e+00, 7.25954247e+00, 1.33604879e+01, 1.24590569e+01,
          -2.57615967e+01, -1.64690247e+01, -2.54076900e+01 ]
      - [ 3.05040097e+00, 9.69467545e+00, 1.53569794e+01, 1.20578432e+01,
          -2.69705467e+01, 1.74779568e+01, -2.57660999e+01 ]
      - [ 2.99795485e+00, 8.21236324e+00, 1.29044819e+01, 1.13562670e+01,
          -2.35145741e+01, -1.54925432e+01, -2.39457836e+01 ]
      - [ 2.94005418e+00, 6.62725782e+00, 1.18874226e+01, 1.16495180e+01,
          -2.35079098e+01, -1.49775162e+01, -2.36528473e+01 ]
      - [ 2.74298644e+00, 7.72890282e+00, 1.15224743e+01, 9.99337864e+00,
          -2.16706886e+01, -1.46374102e+01, -2.07544746e+01 ]
      - [ 2.93502116e+00, 7.65608883e+00, 1.26577730e+01, 1.15021372e+01,
          -2.37770863e+01, -1.55012379e+01, -2.36957092e+01 ]
      - [ 2.99386835e+00, 8.10797119e+00, 1.32351313e+01, 1.16220360e+01,
          -2.40919456e+01, -1.57144852e+01, -2.44312191e+01 ]
      - [ 2.95239687e+00, 8.94719505e+00, 1.28615837e+01, 1.12915106e+01,
          2.33755951e+01, 1.59290848e+01, 2.41015739e+01 ]
      - [ 2.96666050e+00, 7.92323256e+00, 1.33435059e+01, 1.19573765e+01,
          -2.46480961e+01, -1.59554920e+01, -2.49934883e+01 ]
      - [ 2.99241424e+00, 8.01907921e+00, 1.32908077e+01, 1.18119411e+01,
          2.44812584e+01, 1.59518347e+01, 2.45521679e+01 ]
      - [ 3.06253552e+00, 7.65697432e+00, 1.48581734e+01, 1.26472616e+01,
          -2.64268646e+01, -1.64936657e+01, -2.68668919e+01 ]
      - [ 3.04346991e+00, 7.99063492e+00, 1.32226639e+01, 1.24011984e+01,
          -2.53666191e+01, -1.73193359e+01, -2.53607101e+01 ]
      - [ 3.03307796e+00, 1.05677023e+01, 1.29576254e+01, 1.18780031e+01,
          -2.43469353e+01, 1.78733521e+01, 2.46349621e+01 ]
      - [ 3.04686427e+00, 8.74374676e+00, 1.32624044e+01, 1.20352049e+01,
          -2.47878399e+01, 1.65880699e+01, -2.48940754e+01 ]
      - [ 3.04134703e+00, 7.76440048e+00, 1.30306025e+01, 1.19724464e+01,
          2.55946808e+01, 1.59101954e+01, 2.44752197e+01 ]
      - [ 3.07314181e+00, 9.05269051e+00, 1.44559517e+01, 1.19433994e+01,
          -2.60072575e+01, -1.64979019e+01, 2.51471729e+01 ]
   decision_functions:
      -
         sv_count: 9
         rho: -3.9210929832270391e+00
         alpha: [ 2.2118945925039473e+01, 6.0554199907963707e+01,
             3.1250000000000000e+02, 6.4029511190912629e+01,
             -2.1845857766966397e+01, -2.2969885022168967e+02,
             -2.0250913706157394e+02, -2.5744059619509150e+00,
             -2.5744060117347800e+00 ]
         index: [ 0, 2, 4, 5, 6, 7, 8, 9, 11 ]
      -
         sv_count: 10
         rho: 2.6509085512781272e-01
         alpha: [ 4.0936889605957161e+00, 1.2650908487963355e+00,
             2.7857290824801261e+01, 3.2431427086393567e+00,
             -5.0633321804887430e+00, -2.6264377463290959e+01,
             -7.3490918925359994e-01, -2.9267762344842603e+00,
             -7.3490913149044446e-01, -7.3490914382466088e-01 ]
         index: [ 0, 1, 2, 3, 12, 13, 14, 15, 16, 17 ]
      -
         sv_count: 9
         rho: 5.8212581804179153e-01
         alpha: [ 9.1394102671866859e-02, 1.1577397224236798e+01,
             2.1844381503413430e+01, -9.4351257689234039e-02,
             -1.0916772875438257e+01, -4.1787422178708900e-01,
             -4.1787422305454081e-01, -2.1248426089629298e+01,
             -4.1787416272368022e-01 ]
         index: [ 6, 10, 11, 12, 13, 14, 15, 16, 17 ]
