%YAML:1.0
---
opencv_ml_svm:
   format: 3
   svmType: C_SVC
   kernel:
      type: RBF
      gamma: 1.5000000000000001e-04
   C: 3.1250000000000000e+02
   term_criteria: { epsilon:1.1920928955078125e-07, iterations:1000 }
   var_count: 7
   class_count: 3
   class_labels: !!opencv-matrix
      rows: 3
      cols: 1
      dt: i
      data: [ 1, 2, 3 ]
   sv_total: 12
   support_vectors:
      - [ 6.65555239e-01, 8.23164940e+00, 8.68030167e+00, 8.64949322e+00,
          -1.75957203e+01, 1.28023376e+01, -1.73838444e+01 ]
      - [ 6.65806949e-01, 9.51109791e+00, 6.95364237e+00, 8.99587822e+00,
          1.69709835e+01, -1.37583494e+01, -1.83705807e+01 ]
      - [ 6.65337741e-01, 4.67556858e+00, 7.88965130e+00, 9.31771660e+00,
          1.93316174e+01, 1.17085285e+01, -1.79217281e+01 ]
      - [ 6.64772093e-01, 4.74267483e+00, 6.67969227e+00, 8.63135529e+00,
          1.63082314e+01, -1.10208025e+01, -1.68011074e+01 ]
      - [ 6.65409923e-01, 8.05187225e+00, 8.13776970e+00, 9.44331169e+00,
          -1.92069168e+01, 1.38738985e+01, -1.82363243e+01 ]
      - [ 6.65413499e-01, 7.52631235e+00, 7.64919043e+00, 9.60887241e+00,
          -1.88332787e+01, 1.37585516e+01, 1.82523708e+01 ]
      - [ 7.78111577e-01, 9.77807045e+00, 9.59903049e+00, 1.04964094e+01,
          -2.11356163e+01, 1.58560247e+01, -2.05588665e+01 ]
      - [ 7.78136909e-01, 1.03133831e+01, 9.56381226e+00, 1.05204315e+01,
          2.10978336e+01, 1.57178097e+01, -2.05818443e+01 ]
      - [ 7.78138280e-01, 1.02589664e+01, 1.11171741e+01, 1.20902596e+01,
          -2.38209553e+01, -1.76836834e+01, -2.38708916e+01 ]
      - [ 7.78142452e-01, 9.72754478e+00, 1.05241413e+01, 1.15619555e+01,
          2.29463234e+01, -1.64973736e+01, -2.26555481e+01 ]
      - [ 7.78170288e-01, 1.65707226e+01, 1.03163691e+01, 1.23742752e+01,
          -2.46633644e+01, -2.07281895e+01, 2.37224293e+01 ]
      - [ 7.11185396e-01, 3.11456013e+00, 2.33356285e+00, 4.56305647e+00,
          8.01136684e+00, 6.12033749e+00, -1.07431164e+01 ]
   decision_functions:
      -
         sv_count: 8
         rho: 8.8252020911834794e+00
         alpha: [ 2.8040643229804374e+01, 2.0176619170340359e+01,
             3.1250000000000000e+02, -3.1250000000000000e+02,
             -1.3141407447214014e+01, -5.5685820224479157e+00,
             -1.8427780640986146e+01, -1.1079492289496560e+01 ]
         index: [ 0, 1, 4, 6, 7, 8, 9, 10 ]
      -
         sv_count: 5
         rho: -4.8852952064024242e+00
         alpha: [ 9.7287780868249296e+00, 3.2701827145828112e+01,
             1.9201807854661425e+01, 1.0019505537785859e+01,
             -7.1651918625100294e+01 ]
         index: [ 0, 2, 3, 5, 11 ]
      -
         sv_count: 5
         rho: -2.6441168791509497e+00
         alpha: [ 5.5928500856796797e+00, 1.3771145734213286e+01,
             4.2243368578877822e+00, 2.9293921002610839e+00,
             -2.6517724778041835e+01 ]
         index: [ 6, 7, 9, 10, 11 ]
