%YAML:1.0
---
opencv_ml_svm:
   format: 3
   svmType: C_SVC
   kernel:
      type: RBF
      gamma: 1.5000000000000001e-04
   C: 3.1250000000000000e+02
   term_criteria: { epsilon:1.1920928955078125e-07, iterations:1000 }
   var_count: 7
   class_count: 3
   class_labels: !!opencv-matrix
      rows: 3
      cols: 1
      dt: i
      data: [ 1, 2, 3 ]
   sv_total: 25
   support_vectors:
      - [ 6.60219789e-01, 4.36793327e+00, 4.84776163e+00, 5.47672653e+00,
          -1.14984303e+01, 7.81234694e+00, 1.06431589e+01 ]
      - [ 6.63547754e-01, 5.67789268e+00, 5.93946457e+00, 5.42850494e+00,
          1.11179028e+01, -8.35164452e+00, 1.19168453e+01 ]
      - [ 6.60225928e-01, 4.21847630e+00, 5.54952335e+00, 4.99851131e+00,
          -1.03189869e+01, -7.12091732e+00, -1.06301889e+01 ]
      - [ 6.63235068e-01, 5.63215923e+00, 5.96358013e+00, 7.96056366e+00,
          1.49283667e+01, -1.18176355e+01, -1.57147732e+01 ]
      - [ 6.59781694e-01, 3.65406632e+00, 5.26630783e+00, 4.77634048e+00,
          9.93190479e+00, -6.60932970e+00, 9.96577454e+00 ]
      - [ 6.54223740e-01, 3.17412972e+00, 4.79721498e+00, 4.46397257e+00,
          9.74512959e+00, -6.07901144e+00, -9.10570145e+00 ]
      - [ 6.60096288e-01, 4.29722071e+00, 4.81490946e+00, 5.85714102e+00,
          -1.14990730e+01, -8.67673016e+00, 1.12540340e+01 ]
      - [ 6.60072684e-01, 4.31967306e+00, 6.84864473e+00, 5.08889008e+00,
          -1.23242302e+01, -7.24972010e+00, -1.10582943e+01 ]
      - [ 6.60036206e-01, 4.14218378e+00, 5.29039240e+00, 4.85492134e+00,
          -9.93844509e+00, -6.92792463e+00, 1.05833206e+01 ]
      - [ 6.54638410e-01, 2.93782568e+00, 4.53680086e+00, 4.69394159e+00,
          -9.31454277e+00, -6.17408514e+00, 1.01210699e+01 ]
      - [ 7.76547015e-01, 3.90294075e+00, 4.96121883e+00, 6.93280554e+00,
          1.29973984e+01, -9.01747036e+00, 1.30691710e+01 ]
      - [ 7.75099397e-01, 3.48886585e+00, 4.94198132e+00, 6.60034800e+00,
          -1.23722095e+01, -8.34480953e+00, -1.36185045e+01 ]
      - [ 7.76451588e-01, 3.82226086e+00, 6.11815357e+00, 7.95748281e+00,
          -1.55561323e+01, -9.96779537e+00, 1.50123634e+01 ]
      - [ 7.74731100e-01, 3.41504812e+00, 5.00312662e+00, 6.66450214e+00,
          -1.25218182e+01, -8.37341595e+00, -1.29927845e+01 ]
      - [ 7.74793088e-01, 3.52404022e+00, 4.61922407e+00, 6.29537821e+00,
          -1.17607355e+01, -8.07515144e+00, 1.24720211e+01 ]
      - [ 7.76578367e-01, 3.95547700e+00, 5.20562410e+00, 7.10439348e+00,
          1.32600107e+01, -1.01722612e+01, -1.45357189e+01 ]
      - [ 7.76582479e-01, 3.85071445e+00, 6.42124653e+00, 8.59865284e+00,
          -1.65508633e+01, 1.06664143e+01, 1.61389580e+01 ]
      - [ 7.76386440e-01, 3.80989742e+00, 5.39336491e+00, 7.30023193e+00,
          1.37147789e+01, -9.70618629e+00, -1.39329519e+01 ]
      - [ 7.14298069e-01, 4.05696392e+00, 2.33363700e+00, 5.58850384e+00,
          -1.00020723e+01, -8.04833889e+00, -9.57843399e+00 ]
      - [ 7.16410398e-01, 4.36045599e+00, 2.34806752e+00, 5.92956829e+00,
          1.03171015e+01, 8.25129318e+00, -1.01515274e+01 ]
      - [ 7.15649962e-01, 4.15073204e+00, 2.34319854e+00, 5.66774893e+00,
          9.69785500e+00, 7.78700924e+00, -1.01580458e+01 ]
      - [ 7.13755548e-01, 3.75003004e+00, 2.33269787e+00, 5.27813625e+00,
          -9.10135555e+00, -7.16730928e+00, 9.63553047e+00 ]
      - [ 7.14548945e-01, 4.30106688e+00, 2.33420134e+00, 5.82476473e+00,
          9.90966225e+00, 7.98469830e+00, -1.07085495e+01 ]
      - [ 7.12477863e-01, 3.42745519e+00, 2.32995820e+00, 4.94970751e+00,
          -9.13457966e+00, -7.16801882e+00, 8.60794640e+00 ]
      - [ 7.13770747e-01, 3.80669546e+00, 2.33204460e+00, 5.32971048e+00,
          -9.20840931e+00, -7.27189589e+00, 9.51262474e+00 ]
   decision_functions:
      -
         sv_count: 16
         rho: 1.3809720565778631e+01
         alpha: [ 4.6279014397078200e+01, 3.1250000000000000e+02,
             3.1250000000000000e+02, 3.1250000000000000e+02,
             1.3611267337331602e+01, 3.1250000000000000e+02,
             2.6010004928965049e+02, 1.5316273714492651e+01,
             -3.1250000000000000e+02, -2.1682730562167399e+02,
             -1.1140645310312044e+01, -3.1250000000000000e+02,
             -3.1250000000000000e+02, -3.1250000000000000e+02,
             -3.6479302619182427e+01, -7.0859351187384632e+01 ]
         index: [ 1, 2, 3, 4, 5, 6, 7, 9, 10, 11, 12, 13, 14, 15, 16, 17 ]
      -
         sv_count: 14
         rho: -5.2121114642692969e+00
         alpha: [ 5.8231137783652571e+01, 4.3626295479474742e+01,
             8.7495152396567306e+00, 1.0668641652620032e+02,
             3.1250000000000000e+02, 4.9974763494272047e+01,
             3.1250000000000000e+02, -3.3987457342586950e+01,
             -1.6218605185519979e+00, -1.8472964122287931e+00,
             -3.1250000000000000e+02, -6.2343389862601555e+01,
             -1.6746812438728730e+02, -3.1250000000000000e+02 ]
         index: [ 0, 2, 4, 5, 6, 8, 9, 18, 19, 20, 21, 22, 23, 24 ]
      -
         sv_count: 7
         rho: -1.1555530961400995e+01
         alpha: [ 3.5632070555153781e+01, 2.7785422648848726e+02,
             3.1250000000000000e+02, 2.0931765896560730e+01,
             -3.0973401515247571e+02, -2.4684047787725682e+01,
             -3.1250000000000000e+02 ]
         index: [ 10, 11, 14, 15, 18, 21, 24 ]
